digraph Tree {
node [shape=box, style="filled, rounded", color="black", fontname="helvetica"] ;
edge [fontname="helvetica"] ;
0 [label="soil_temp <= 17.0\ngini = 0.982\nsamples = 3920\nvalue = [70, 70, 70, 70, 70, 70, 70, 70, 70, 70, 70, 70\n70, 70, 70, 70, 70, 70, 70, 70, 70, 70, 70, 70\n70, 70, 70, 70, 70, 70, 70, 70, 70, 70, 70, 70\n70, 70, 70, 70, 70, 70, 70, 70, 70, 70, 70, 70\n70, 70, 70, 70, 70, 70, 70, 70]\nclass = Ampalaya", fillcolor="#ffffff"] ;
1 [label="humidity <= 58.5\ngini = 0.5\nsamples = 140\nvalue = [0, 70, 0, 0, 0, 0, 0, 0, 0, 0, 0, 0, 0, 0\n0, 0, 0, 0, 0, 0, 0, 0, 0, 0, 0, 0, 0, 0\n0, 0, 0, 0, 0, 0, 0, 0, 0, 0, 0, 0, 70, 0\n0, 0, 0, 0, 0, 0, 0, 0, 0, 0, 0, 0, 0, 0]\nclass = Apple", fillcolor="#ffffff"] ;
0 -> 1 [labeldistance=2.5, labelangle=45, headlabel="True"] ;
2 [label="soil_temp <= 13.9\ngini = 0.054\nsamples = 72\nvalue = [0, 70, 0, 0, 0, 0, 0, 0, 0, 0, 0, 0, 0, 0\n0, 0, 0, 0, 0, 0, 0, 0, 0, 0, 0, 0, 0, 0\n0, 0, 0, 0, 0, 0, 0, 0, 0, 0, 0, 0, 2, 0\n0, 0, 0, 0, 0, 0, 0, 0, 0, 0, 0, 0, 0, 0]\nclass = Apple", fillcolor="#e6953f"] ;
1 -> 2 ;
3 [label="fertility_ec <= 1242.0\ngini = 0.444\nsamples = 3\nvalue = [0, 1, 0, 0, 0, 0, 0, 0, 0, 0, 0, 0, 0, 0\n0, 0, 0, 0, 0, 0, 0, 0, 0, 0, 0, 0, 0, 0\n0, 0, 0, 0, 0, 0, 0, 0, 0, 0, 0, 0, 2, 0\n0, 0, 0, 0, 0, 0, 0, 0, 0, 0, 0, 0, 0, 0]\nclass = Radish", fillcolor="#d89cf2"] ;
2 -> 3 ;
4 [label="(...)", fillcolor="#C0C0C0"] ;
3 -> 4 ;
5 [label="(...)", fillcolor="#C0C0C0"] ;
3 -> 5 ;
6 [label="gini = 0.0\nsamples = 69\nvalue = [0, 69, 0, 0, 0, 0, 0, 0, 0, 0, 0, 0, 0, 0\n0, 0, 0, 0, 0, 0, 0, 0, 0, 0, 0, 0, 0, 0\n0, 0, 0, 0, 0, 0, 0, 0, 0, 0, 0, 0, 0, 0\n0, 0, 0, 0, 0, 0, 0, 0, 0, 0, 0, 0, 0, 0]\nclass = Apple", fillcolor="#e59239"] ;
2 -> 6 ;
7 [label="gini = 0.0\nsamples = 68\nvalue = [0, 0, 0, 0, 0, 0, 0, 0, 0, 0, 0, 0, 0, 0\n0, 0, 0, 0, 0, 0, 0, 0, 0, 0, 0, 0, 0, 0\n0, 0, 0, 0, 0, 0, 0, 0, 0, 0, 0, 0, 68, 0\n0, 0, 0, 0, 0, 0, 0, 0, 0, 0, 0, 0, 0, 0]\nclass = Radish", fillcolor="#b139e5"] ;
1 -> 7 ;
8 [label="humidity <= 54.5\ngini = 0.981\nsamples = 3780\nvalue = [70, 0, 70, 70, 70, 70, 70, 70, 70, 70, 70, 70\n70, 70, 70, 70, 70, 70, 70, 70, 70, 70, 70, 70\n70, 70, 70, 70, 70, 70, 70, 70, 70, 70, 70, 70\n70, 70, 70, 70, 0, 70, 70, 70, 70, 70, 70, 70\n70, 70, 70, 70, 70, 70, 70, 70]\nclass = Ampalaya", fillcolor="#ffffff"] ;
0 -> 8 [labeldistance=2.5, labelangle=-45, headlabel="False"] ;
9 [label="gini = 0.0\nsamples = 70\nvalue = [0, 0, 0, 0, 0, 0, 0, 0, 0, 0, 0, 0, 0, 0\n0, 0, 0, 0, 70, 0, 0, 0, 0, 0, 0, 0, 0, 0\n0, 0, 0, 0, 0, 0, 0, 0, 0, 0, 0, 0, 0, 0\n0, 0, 0, 0, 0, 0, 0, 0, 0, 0, 0, 0, 0, 0]\nclass = Grapes", fillcolor="#39e572"] ;
8 -> 9 ;
10 [label="soil_temp <= 24.45\ngini = 0.981\nsamples = 3710\nvalue = [70, 0, 70, 70, 70, 70, 70, 70, 70, 70, 70, 70\n70, 70, 70, 70, 70, 70, 0, 70, 70, 70, 70, 70\n70, 70, 70, 70, 70, 70, 70, 70, 70, 70, 70, 70\n70, 70, 70, 70, 0, 70, 70, 70, 70, 70, 70, 70\n70, 70, 70, 70, 70, 70, 70, 70]\nclass = Ampalaya", fillcolor="#ffffff"] ;
8 -> 10 ;
11 [label="sunlight <= 24279.5\ngini = 0.8\nsamples = 347\nvalue = [0, 0, 0, 0, 0, 0, 0, 0, 0, 0, 0, 0, 0, 0\n0, 0, 0, 0, 0, 0, 0, 0, 0, 0, 0, 0, 0, 0\n0, 0, 70, 0, 70, 67, 0, 70, 0, 0, 0, 0, 0, 0\n0, 0, 0, 0, 0, 0, 0, 0, 0, 0, 70, 0, 0, 0]\nclass = Mustard", fillcolor="#ffffff"] ;
10 -> 11 ;
12 [label="(...)", fillcolor="#C0C0C0"] ;
11 -> 12 ;
13 [label="(...)", fillcolor="#C0C0C0"] ;
11 -> 13 ;
28 [label="fertility_ec <= 923.0\ngini = 0.979\nsamples = 3363\nvalue = [70, 0, 70, 70, 70, 70, 70, 70, 70, 70, 70, 70\n70, 70, 70, 70, 70, 70, 0, 70, 70, 70, 70, 70\n70, 70, 70, 70, 70, 70, 0, 70, 0, 3, 70, 0, 70\n70, 70, 70, 0, 70, 70, 70, 70, 70, 70, 70, 70\n70, 70, 70, 0, 70, 70, 70]\nclass = Ampalaya", fillcolor="#ffffff"] ;
10 -> 28 ;
29 [label="(...)", fillcolor="#C0C0C0"] ;
28 -> 29 ;
1408 [label="(...)", fillcolor="#C0C0C0"] ;
28 -> 1408 ;
}