digraph Tree {
node [shape=box, style="filled, rounded", color="black", fontname="helvetica"] ;
edge [fontname="helvetica"] ;
0 [label="humidity <= 66.5\ngini = 0.971\nsamples = 2450\nvalue = [70, 70, 70, 70, 70, 70, 70, 70, 70, 70, 70, 70\n70, 70, 70, 70, 70, 70, 70, 70, 70, 70, 70, 70\n70, 70, 70, 70, 70, 70, 70, 70, 70, 70, 70]\nclass = Ampalaya", fillcolor="#ffffff"] ;
1 [label="sunlight <= 7747.0\ngini = 0.154\nsamples = 74\nvalue = [0, 0, 68, 1, 0, 0, 0, 0, 0, 0, 0, 0, 0, 0\n0, 0, 0, 1, 0, 0, 0, 1, 1, 0, 0, 0, 0, 0\n0, 0, 0, 1, 0, 1, 0]\nclass = Bamboo", fillcolor="#e7c049"] ;
0 -> 1 [labeldistance=2.5, labelangle=45, headlabel="True"] ;
2 [label="gini = 0.0\nsamples = 68\nvalue = [0, 0, 68, 0, 0, 0, 0, 0, 0, 0, 0, 0, 0, 0\n0, 0, 0, 0, 0, 0, 0, 0, 0, 0, 0, 0, 0, 0\n0, 0, 0, 0, 0, 0, 0]\nclass = Bamboo", fillcolor="#e5ba39"] ;
1 -> 2 ;
3 [label="sunlight <= 8707.0\ngini = 0.833\nsamples = 6\nvalue = [0, 0, 0, 1, 0, 0, 0, 0, 0, 0, 0, 0, 0, 0\n0, 0, 0, 1, 0, 0, 0, 1, 1, 0, 0, 0, 0, 0\n0, 0, 0, 1, 0, 1, 0]\nclass = Banana", fillcolor="#ffffff"] ;
1 -> 3 ;
4 [label="gini = 0.667\nsamples = 3\nvalue = [0, 0, 0, 0, 0, 0, 0, 0, 0, 0, 0, 0, 0, 0\n0, 0, 0, 1, 0, 0, 0, 1, 1, 0, 0, 0, 0, 0\n0, 0, 0, 0, 0, 0, 0]\nclass = Kulo", fillcolor="#ffffff"] ;
3 -> 4 ;
5 [label="gini = 0.667\nsamples = 3\nvalue = [0, 0, 0, 1, 0, 0, 0, 0, 0, 0, 0, 0, 0, 0\n0, 0, 0, 0, 0, 0, 0, 0, 0, 0, 0, 0, 0, 0\n0, 0, 0, 1, 0, 1, 0]\nclass = Banana", fillcolor="#ffffff"] ;
3 -> 5 ;
6 [label="sunlight <= 2803.5\ngini = 0.971\nsamples = 2376\nvalue = [70, 70, 2, 69, 70, 70, 70, 70, 70, 70, 70, 70\n70, 70, 70, 70, 70, 69, 70, 70, 70, 69, 69, 70\n70, 70, 70, 70, 70, 70, 70, 69, 70, 69, 70]\nclass = Ampalaya", fillcolor="#ffffff"] ;
0 -> 6 [labeldistance=2.5, labelangle=-45, headlabel="False"] ;
7 [label="fertility_ec <= 394.0\ngini = 0.965\nsamples = 1938\nvalue = [0.0, 70.0, 2.0, 24.0, 70.0, 70.0, 70.0, 70.0, 55.0\n70.0, 70.0, 70.0, 70.0, 70.0, 70.0, 70.0, 70.0, 69.0\n51.0, 70.0, 70.0, 69.0, 69.0, 70.0, 5.0, 0.0, 70.0\n70.0, 66.0, 0.0, 70.0, 59.0, 70.0, 60.0, 9.0]\nclass = Avocado", fillcolor="#ffffff"] ;
6 -> 7 ;
8 [label="fertility_ec <= 387.5\ngini = 0.157\nsamples = 72\nvalue = [0, 0, 1, 0, 0, 0, 0, 0, 0, 0, 0, 0, 0, 0\n0, 0, 3, 1, 0, 0, 0, 1, 66, 0, 0, 0, 0, 0\n0, 0, 0, 0, 0, 0, 0]\nclass = Orchid", fillcolor="#674ae7"] ;
7 -> 8 ;
9 [label="(...)", fillcolor="#C0C0C0"] ;
8 -> 9 ;
10 [label="(...)", fillcolor="#C0C0C0"] ;
8 -> 10 ;
15 [label="sunlight <= 1498.0\ngini = 0.964\nsamples = 1866\nvalue = [0.0, 70.0, 1.0, 24.0, 70.0, 70.0, 70.0, 70.0, 55.0\n70.0, 70.0, 70.0, 70.0, 70.0, 70.0, 70.0, 67.0, 68.0\n51.0, 70.0, 70.0, 68.0, 3.0, 70.0, 5.0, 0.0, 70.0\n70.0, 66.0, 0.0, 70.0, 59.0, 70.0, 60.0, 9.0]\nclass = Avocado", fillcolor="#ffffff"] ;
7 -> 15 ;
16 [label="(...)", fillcolor="#C0C0C0"] ;
15 -> 16 ;
277 [label="(...)", fillcolor="#C0C0C0"] ;
15 -> 277 ;
572 [label="soil_ph <= 6.25\ngini = 0.867\nsamples = 438\nvalue = [70, 0, 0, 45, 0, 0, 0, 0, 15, 0, 0, 0, 0, 0\n0, 0, 0, 0, 19, 0, 0, 0, 0, 0, 65, 70, 0, 0\n4, 70, 0, 10, 0, 9, 61]\nclass = Ampalaya", fillcolor="#ffffff"] ;
6 -> 572 ;
573 [label="fertility_ec <= 623.5\ngini = 0.721\nsamples = 161\nvalue = [0, 0, 0, 40, 0, 0, 0, 0, 14, 0, 0, 0, 0, 0\n0, 0, 0, 0, 19, 0, 0, 0, 0, 0, 0, 70, 0, 0\n0, 0, 0, 9, 0, 9, 0]\nclass = Pineapple", fillcolor="#eccef9"] ;
572 -> 573 ;
574 [label="(...)", fillcolor="#C0C0C0"] ;
573 -> 574 ;
589 [label="(...)", fillcolor="#C0C0C0"] ;
573 -> 589 ;
600 [label="fertility_ec <= 561.0\ngini = 0.768\nsamples = 277\nvalue = [70, 0, 0, 5, 0, 0, 0, 0, 1, 0, 0, 0, 0, 0\n0, 0, 0, 0, 0, 0, 0, 0, 0, 0, 65, 0, 0, 0\n4, 70, 0, 1, 0, 0, 61]\nclass = Ampalaya", fillcolor="#ffffff"] ;
572 -> 600 ;
601 [label="(...)", fillcolor="#C0C0C0"] ;
600 -> 601 ;
894 [label="(...)", fillcolor="#C0C0C0"] ;
600 -> 894 ;
}