digraph Tree {
node [shape=box, style="filled, rounded", color="black", fontname="helvetica"] ;
edge [fontname="helvetica"] ;
0 [label="K <= 4.0\ngini = 0.976\nsamples = 2940\nvalue = [63.0, 67.0, 76.0, 70.0, 62.0, 70.0, 70.0, 65.0, 76.0\n68.0, 73.0, 66.0, 72.0, 78.0, 63.0, 64.0, 70.0, 70.0\n68.0, 72.0, 74.0, 65.0, 66.0, 68.0, 75.0, 65.0, 67.0\n69.0, 81.0, 69.0, 72.0, 65.0, 70.0, 76.0, 77.0, 71.0\n69.0, 72.0, 76.0, 80.0, 67.0, 63.0]\nclass = radish", fillcolor="#ffffff"] ;
1 [label="K <= 2.0\ngini = 0.496\nsamples = 149\nvalue = [0, 0, 0, 0, 0, 0, 0, 0, 0, 0, 0, 0, 0, 0\n0, 0, 0, 0, 0, 0, 0, 0, 0, 68, 0, 0, 0, 0\n81, 0, 0, 0, 0, 0, 0, 0, 0, 0, 0, 0, 0, 0]\nclass = radish", fillcolor="#eadffb"] ;
0 -> 1 [labeldistance=2.5, labelangle=45, headlabel="True"] ;
2 [label="gini = 0.0\nsamples = 68\nvalue = [0, 0, 0, 0, 0, 0, 0, 0, 0, 0, 0, 0, 0, 0\n0, 0, 0, 0, 0, 0, 0, 0, 0, 68, 0, 0, 0, 0\n0, 0, 0, 0, 0, 0, 0, 0, 0, 0, 0, 0, 0, 0]\nclass = oyster mushroom", fillcolor="#396de5"] ;
1 -> 2 ;
3 [label="gini = 0.0\nsamples = 81\nvalue = [0, 0, 0, 0, 0, 0, 0, 0, 0, 0, 0, 0, 0, 0\n0, 0, 0, 0, 0, 0, 0, 0, 0, 0, 0, 0, 0, 0\n81, 0, 0, 0, 0, 0, 0, 0, 0, 0, 0, 0, 0, 0]\nclass = radish", fillcolor="#7e39e5"] ;
1 -> 3 ;
4 [label="rainfall <= 330.28\ngini = 0.975\nsamples = 2791\nvalue = [63.0, 67.0, 76.0, 70.0, 62.0, 70.0, 70.0, 65.0, 76.0\n68.0, 73.0, 66.0, 72.0, 78.0, 63.0, 64.0, 70.0, 70.0\n68.0, 72.0, 74.0, 65.0, 66.0, 0.0, 75.0, 65.0, 67.0\n69.0, 0.0, 69.0, 72.0, 65.0, 70.0, 76.0, 77.0, 71.0\n69.0, 72.0, 76.0, 80.0, 67.0, 63.0]\nclass = ube", fillcolor="#ffffff"] ;
0 -> 4 [labeldistance=2.5, labelangle=-45, headlabel="False"] ;
5 [label="P <= 69.5\ngini = 0.9\nsamples = 701\nvalue = [0, 67, 76, 0, 0, 0, 70, 0, 0, 0, 0, 0, 72, 0\n0, 0, 70, 70, 0, 0, 0, 0, 66, 0, 75, 0, 0, 0\n0, 0, 72, 0, 0, 0, 0, 0, 0, 0, 0, 0, 0, 63]\nclass = banana", fillcolor="#ffffff"] ;
4 -> 5 ;
6 [label="humidity <= 55.248\ngini = 0.857\nsamples = 484\nvalue = [0.0, 0.0, 0.0, 0.0, 0.0, 0.0, 70.0, 0.0, 0.0, 0.0\n0.0, 0.0, 0.0, 0.0, 0.0, 0.0, 70.0, 70.0, 0.0, 0.0\n0.0, 0.0, 66.0, 0.0, 73.0, 0.0, 0.0, 0.0, 0.0, 0.0\n72.0, 0.0, 0.0, 0.0, 0.0, 0.0, 0.0, 0.0, 0.0, 0.0\n0.0, 63.0]\nclass = papaya", fillcolor="#ffffff"] ;
5 -> 6 ;
7 [label="(...)", fillcolor="#C0C0C0"] ;
6 -> 7 ;
8 [label="(...)", fillcolor="#C0C0C0"] ;
6 -> 8 ;
19 [label="N <= 74.0\ngini = 0.672\nsamples = 217\nvalue = [0, 67, 76, 0, 0, 0, 0, 0, 0, 0, 0, 0, 72, 0\n0, 0, 0, 0, 0, 0, 0, 0, 0, 0, 2, 0, 0, 0\n0, 0, 0, 0, 0, 0, 0, 0, 0, 0, 0, 0, 0, 0]\nclass = banana", fillcolor="#fefdfa"] ;
5 -> 19 ;
20 [label="(...)", fillcolor="#C0C0C0"] ;
19 -> 20 ;
25 [label="(...)", fillcolor="#C0C0C0"] ;
19 -> 25 ;
26 [label="K <= 30.5\ngini = 0.967\nsamples = 2090\nvalue = [63.0, 0.0, 0.0, 70.0, 62.0, 70.0, 0.0, 65.0, 76.0\n68.0, 73.0, 66.0, 0.0, 78.0, 63.0, 64.0, 0.0, 0.0\n68.0, 72.0, 74.0, 65.0, 0.0, 0.0, 0.0, 65.0, 67.0\n69.0, 0.0, 69.0, 0.0, 65.0, 70.0, 76.0, 77.0, 71.0\n69.0, 72.0, 76.0, 80.0, 67.0, 0.0]\nclass = ube", fillcolor="#ffffff"] ;
4 -> 26 ;
27 [label="gini = 0.0\nsamples = 72\nvalue = [0, 0, 0, 0, 0, 0, 0, 0, 0, 0, 0, 0, 0, 0\n0, 0, 0, 0, 0, 72, 0, 0, 0, 0, 0, 0, 0, 0\n0, 0, 0, 0, 0, 0, 0, 0, 0, 0, 0, 0, 0, 0]\nclass = mustard", fillcolor="#39d1e5"] ;
26 -> 27 ;
28 [label="N <= 288.5\ngini = 0.965\nsamples = 2018\nvalue = [63, 0, 0, 70, 62, 70, 0, 65, 76, 68, 73, 66, 0\n78, 63, 64, 0, 0, 68, 0, 74, 65, 0, 0, 0, 65\n67, 69, 0, 69, 0, 65, 70, 76, 77, 71, 69, 72\n76, 80, 67, 0]\nclass = ube", fillcolor="#ffffff"] ;
26 -> 28 ;
29 [label="(...)", fillcolor="#C0C0C0"] ;
28 -> 29 ;
180 [label="(...)", fillcolor="#C0C0C0"] ;
28 -> 180 ;
}